//Numpy array shape [128, 32]
//Min -0.176741957664
//Max 0.176716104150
//Number of zeros 0

#ifndef W2_H_
#define W2_H_

#ifndef __SYNTHESIS__
model_default_t w2[4096];
#else
model_default_t w2[4096] = {-0.0938452706, -0.1127101779, 0.0471712649, 0.0734201223, 0.0185773671, 0.1064084917, 0.0518734604, -0.0265686214, -0.0950131565, 0.0693161041, -0.0248718709, 0.1516326517, -0.1258469820, -0.0629906133, 0.0688890815, 0.0342739671, -0.0506362170, 0.1237706989, 0.0166356713, -0.0655519441, -0.0596494675, -0.1584523320, 0.0187121481, 0.1597999781, 0.0145590603, 0.0307110548, 0.1720776707, -0.0921920761, 0.0963835865, 0.1068757921, -0.1219743267, 0.1167863756, 0.1034053117, 0.1406403333, 0.0435985476, 0.0236213654, 0.1545824260, -0.0317728668, -0.1266714483, -0.1129404679, -0.1217963621, -0.0394673795, -0.1162413806, 0.1162649542, -0.0410912186, -0.0047561675, -0.1745465994, -0.0134599358, 0.0353899002, 0.0481873900, -0.0015347749, 0.0529385209, -0.1282941997, -0.1748028696, 0.0889289528, 0.0359646231, -0.1038952023, 0.1036616415, -0.0189832300, -0.1111603901, -0.0235293806, -0.0011410266, 0.1708481461, -0.1218931302, -0.0775448084, 0.1268728524, 0.1621134728, 0.1341364235, 0.0900681168, -0.0526329651, -0.0598129556, -0.1390954852, -0.0498722792, 0.1108355373, 0.0812387615, -0.0864704549, 0.1635502428, 0.0116255134, -0.0192271322, -0.1402926147, 0.0197641701, -0.0769169852, 0.1628491729, 0.0785585791, 0.1547741741, 0.0201953351, 0.1022722274, -0.0252371281, 0.1342518181, -0.0608444735, -0.0295028538, 0.0776235014, 0.0091609061, 0.0009295046, 0.0854632705, -0.1759678572, 0.0268180370, -0.0889288336, -0.1140964925, -0.0496819615, 0.0433615893, -0.1249724180, -0.1002094224, -0.1698163897, -0.0569022298, -0.0009973645, -0.0121898651, 0.0646963865, 0.0969685465, 0.1536511630, 0.1704635769, 0.1505395621, 0.1213417500, -0.0543990806, 0.1726594716, -0.0492855161, 0.1112689227, 0.1169546098, 0.1757871658, -0.0872837007, -0.0186265707, -0.1568272561, 0.1300802082, 0.1149928719, -0.1344673336, -0.1061754748, -0.0930700824, -0.1693563759, -0.0025178939, -0.1339512616, -0.0214678794, 0.1695810109, 0.1379185766, 0.1329224557, 0.0328400880, 0.0760890394, 0.0535610318, 0.0011898726, 0.0690059662, -0.0374306142, -0.1421956122, 0.1642714590, -0.1271693856, -0.1436705589, 0.0993350297, -0.0223332345, -0.0385719538, 0.1672431678, 0.0327318460, -0.0151966959, 0.0710123628, 0.0876446217, 0.0889498740, -0.0407338887, -0.0017352700, -0.1345188022, -0.1761567742, -0.0788646117, 0.0378654003, -0.1129169911, -0.1168744713, 0.1218215972, -0.0297885090, -0.1159800291, 0.0981930643, -0.0594359934, -0.1224227697, -0.0844918266, -0.0991723984, 0.0118470788, -0.1397294700, 0.1542000920, 0.0583640337, 0.0301588327, 0.1503958553, -0.0683505312, 0.1710070521, 0.1378739327, 0.1572469026, -0.0332280844, -0.0055644512, 0.1057050675, -0.1020144820, 0.0142097622, -0.0257662237, 0.0900067836, -0.1497598737, 0.1354793459, -0.0208393335, 0.0350698233, 0.0669769198, 0.0190389603, 0.0829069763, 0.1340371817, 0.1076350957, 0.1640667766, 0.1321308166, -0.0960971490, -0.1571617872, 0.0810822695, -0.0615592822, 0.0968312770, 0.1049407274, -0.0934591591, 0.0948418528, -0.1179894507, -0.1619879603, -0.0546383336, -0.0933451280, -0.1752047390, -0.1173355132, -0.0034238249, 0.0672117621, 0.0517077744, -0.0815994591, 0.0775285214, 0.1161766201, 0.1027533859, 0.1463985592, 0.0813336521, 0.1747681350, 0.1737222821, -0.1024566889, 0.0930404216, 0.1155194491, -0.1251759082, 0.1189133376, -0.0144873857, -0.1536882222, 0.0804878920, -0.1599562615, -0.0039023161, -0.1653568745, -0.1613423824, -0.0409290791, 0.1019182950, -0.0842037722, -0.1627465189, 0.1580406874, 0.0074920207, -0.1659594774, 0.0823665112, -0.1510376185, -0.0639640763, 0.1161911041, 0.0617557764, 0.1195756048, -0.0814747661, -0.0560727790, -0.1072804406, 0.1660377234, 0.1608450860, -0.0350010842, 0.1447348744, 0.1687344462, 0.0903551131, 0.0485543311, 0.0969655365, 0.0801730305, -0.1345770359, -0.1305538267, -0.1716698259, -0.1070036590, 0.1376144737, -0.1425781101, 0.0927831382, -0.0641405061, 0.1708952039, 0.1601295620, -0.1258222461, -0.1337326765, 0.1596161276, 0.0361225903, -0.1637812406, 0.0274021477, 0.1612688750, -0.0818840340, -0.0139420480, -0.1202302054, -0.1677067131, -0.1208808720, 0.1253240556, 0.1151383668, -0.1279778779, 0.0347910076, -0.0241585970, -0.0508296490, -0.1529849470, -0.1713675857, 0.1174042672, -0.0754958168, 0.1026331335, 0.0260541737, -0.0300995559, -0.1152990460, 0.0594654679, 0.0870770663, 0.0600964576, -0.0582546145, -0.0328915119, -0.0485154241, 0.0729190856, 0.1595125943, 0.0294604003, 0.1503811628, 0.1202176958, -0.0158563554, 0.0750823468, -0.1700762510, -0.0617117062, 0.1051930934, 0.0752850324, 0.1720314771, 0.1379905194, -0.1048135012, -0.1514407396, 0.0718587786, 0.0928351730, -0.1113658398, -0.0673590302, 0.0315457284, -0.0445134342, 0.1350064427, -0.1735896468, 0.1753502637, 0.1374883801, -0.1502188891, -0.0103011727, 0.0889617652, 0.0024805367, 0.0639520288, -0.1118941903, -0.1709323376, 0.1096969992, -0.0371927023, 0.1571981162, -0.0483850241, 0.0958004445, 0.0503278673, -0.0746067241, -0.0644472092, -0.1345126182, 0.1124944240, -0.1697978675, -0.1599859297, -0.0330056846, 0.1765323430, 0.0592960417, -0.1246965677, 0.0540724695, 0.0543077141, -0.0171869546, -0.0564153269, -0.0821817592, -0.0074543804, -0.1766485423, 0.1315046698, -0.0111857504, 0.0271151960, -0.0246345103, 0.0758449584, 0.0957837254, 0.0314969718, 0.1028821319, 0.1741130203, 0.0517386645, -0.0791337192, -0.0189880878, -0.0125829875, -0.0240068436, -0.1160564870, -0.0310179144, 0.0937059075, 0.0365624726, 0.0803685337, 0.0557955354, 0.1704600900, -0.1444348842, -0.0203952640, -0.0597452819, 0.1491550952, 0.0106518567, 0.1695873588, -0.0399866700, -0.0604837388, -0.1110428423, -0.0043331981, 0.1458810419, 0.1030565351, 0.0591333061, 0.0246130377, -0.1664151251, 0.0909037143, -0.1566080749, -0.0253865272, 0.0917577296, 0.1743754596, 0.0762588233, 0.0646179616, 0.0821761042, 0.0771779269, 0.0989354402, -0.0502276272, 0.0241522491, -0.0310097188, -0.0796569958, -0.1687487066, -0.0178193748, 0.1614028066, 0.0632429719, 0.0916872174, -0.1470259726, -0.1057828367, 0.1419348270, 0.1237372011, -0.0198735446, -0.1027491242, -0.0987216607, -0.0352415740, -0.1730745137, 0.1148916334, -0.1623836905, 0.0043719411, 0.0568288565, -0.0856238306, -0.0871033743, -0.1513530016, -0.1076024175, -0.0594872013, 0.0921003073, 0.1115220636, -0.1310015321, 0.0714690238, 0.0760210305, 0.0946577042, 0.0255365819, 0.0581637919, 0.1095682234, -0.0051002353, -0.0963368192, -0.1749167144, 0.0154512078, -0.0821289495, 0.0122482181, 0.1451944262, 0.0497702062, -0.0059667230, 0.0797345787, 0.0292664915, 0.0423474908, 0.0499798357, -0.1056049541, -0.0055920631, 0.1291268617, -0.0304485410, -0.1300261319, 0.1381563991, 0.1117194146, -0.1060945988, 0.0270647705, 0.0442590415, 0.0043642819, -0.1691422611, 0.0318212062, -0.0599396452, 0.1501158923, 0.1557746679, 0.0426659435, -0.1496325433, 0.1529257149, 0.0076718628, 0.1591783911, 0.1066744179, -0.0482775122, 0.1386425942, -0.0375513881, 0.0767411143, 0.0591695309, 0.0895288736, -0.0078395605, -0.0535472780, 0.0225083530, 0.1451229602, 0.1202076226, 0.0897468776, -0.0313247144, -0.1215916947, 0.0763175637, -0.1202477813, 0.0817536861, -0.0098440647, 0.1279964000, 0.0800004452, -0.1206200868, -0.1388132125, 0.0736560971, 0.0878872722, 0.0466977656, 0.1544112116, -0.1531034112, 0.1251086742, 0.0085704625, -0.0493513048, -0.0705532506, -0.1044928282, -0.0591925308, -0.0123373568, -0.0749368817, 0.1292026490, 0.0341733843, -0.0291804522, -0.0034393072, -0.0393986404, 0.0881398767, -0.0301842242, -0.0163002461, 0.1678829044, 0.0611075312, -0.0036309361, 0.0864471644, 0.1668776423, -0.1338930130, 0.0664325356, 0.0427355617, 0.0336169600, 0.0297433883, 0.0709745139, -0.1175791025, -0.0793176517, -0.0972420275, -0.0455242991, -0.1677427441, -0.1424158514, -0.1687142104, -0.0590273365, 0.1528238505, -0.1523090601, 0.1603706628, -0.0208997577, -0.1182222441, 0.1373383552, -0.0296017081, -0.0105694234, -0.0053596050, 0.0951422304, -0.1529041529, 0.0240017176, 0.1670296341, 0.1394656152, 0.1082620770, -0.1221822798, -0.1468320489, 0.0222766995, -0.0950675234, 0.0726714879, -0.1634020209, 0.0699284077, 0.1580482274, -0.1302789152, 0.1295804232, -0.1065502241, 0.0899073333, 0.1428449601, -0.1039428711, 0.1167780310, 0.1303881258, -0.1354324520, 0.0406593531, 0.0628669262, 0.0678787380, 0.0303318202, 0.0279138386, 0.0029453337, 0.0872787982, -0.1197578907, 0.1239327043, -0.1747361273, -0.0776818246, -0.1138306484, -0.1197196841, -0.0931634158, 0.0437148958, 0.1107965559, 0.0544827282, -0.1511402428, -0.1159899533, 0.1343033463, 0.1128882319, -0.0100781322, 0.0920419544, 0.0241624564, -0.1011991724, 0.0241656154, -0.0172164589, -0.1174640059, 0.1411240846, -0.1709596217, -0.1011973023, -0.0078507364, -0.1318776906, 0.0400650054, 0.0705566704, -0.0642670915, 0.0336912274, 0.1234473735, -0.0356995463, 0.1189373583, 0.0647957474, -0.0119103342, -0.1544484347, 0.0441840142, -0.1439196765, -0.1358307302, 0.1742688268, 0.1553323716, -0.1055302918, 0.1370911449, 0.1498702019, -0.1522622108, -0.1170766056, 0.1178443283, -0.1425599605, 0.0548621565, -0.1274118125, 0.1482992321, -0.1026319787, -0.0682818741, -0.0748255327, -0.1494736671, -0.1103887036, -0.1122141033, 0.0497473329, 0.0662670434, -0.1636895537, 0.0148238093, 0.0285252333, -0.1057981774, 0.0806369931, -0.0234562159, -0.1303175390, 0.1423226148, 0.1458667368, 0.1536270827, 0.0365509540, -0.0502579510, -0.0010852218, 0.1554716080, -0.1648933887, -0.1741002202, 0.0897651762, 0.0662932992, -0.0168319345, -0.1245237291, 0.1242058128, -0.0952875763, 0.0770644397, -0.0435972661, 0.0120945722, -0.0504680723, -0.0632088110, -0.1036997065, 0.0124219805, -0.0168641061, -0.1247993708, 0.0182063282, 0.1336406022, 0.0246381462, -0.1092153564, 0.0323816985, 0.1671750993, -0.1653606296, -0.1476140022, 0.0148478746, 0.0053939968, -0.0456698239, -0.1631041914, 0.0714032650, -0.0792020634, 0.1351901442, -0.0722676814, 0.0935677141, -0.0321336687, -0.0871866792, -0.1756083220, -0.1728457361, -0.1598794460, -0.1311665922, -0.1668961048, 0.0330688655, -0.1332932413, 0.0893310755, 0.0401676893, 0.1351787597, -0.0446915030, -0.1538528055, -0.0259204656, 0.0659033358, 0.0290977359, 0.0887344629, 0.0609005541, -0.1242089272, 0.1486315578, -0.0086549371, 0.0466255993, 0.0343318880, -0.0277685374, -0.0812499970, -0.1001233757, -0.0084687620, -0.0094461590, -0.1564982235, 0.1683043689, -0.0541547611, -0.0249252170, -0.1752731949, -0.0557031110, 0.0916420370, -0.1282197088, -0.1440794617, 0.0387887806, 0.0951490551, 0.1192157120, -0.1060573980, 0.0134707689, -0.0068416595, 0.1163966805, -0.1731185764, -0.0681150779, -0.0424006283, -0.1631208211, 0.1047310382, -0.1086663082, -0.0708430782, 0.1330433041, -0.1747934967, -0.0157133937, 0.0950379521, 0.0087696910, 0.0588817745, -0.1668426991, -0.0531642660, -0.1645025611, -0.0214222521, 0.1353400499, 0.1399065703, -0.1666209847, -0.0132996887, 0.1709702760, 0.0171008706, 0.0897919983, -0.0005641133, -0.0373535752, -0.0890000686, -0.0433387458, -0.1349201947, -0.0589762554, 0.1317499429, 0.1573612541, -0.0349777937, 0.0266084373, 0.0939605981, -0.1660072058, -0.0126040727, 0.0114578903, -0.0092868507, -0.1575488448, -0.1753913462, -0.1703607589, 0.0796881765, 0.1422217637, 0.1531374007, -0.1051702946, -0.0853878930, -0.1587271988, -0.1256044209, 0.1728284508, 0.0327679962, -0.0147471130, 0.1122071296, 0.1010867208, 0.1614171416, -0.0422415584, -0.0300037265, 0.0019950867, 0.1153193861, 0.1755439490, 0.0786359459, -0.0695369914, -0.1279622167, 0.0650040954, -0.0322155952, -0.0758671090, -0.0878356546, 0.0627408773, -0.1571509540, 0.0368910879, -0.1688245237, 0.0085059702, -0.0724166706, -0.1412104368, 0.0739416033, -0.0508475006, 0.1133407205, 0.0382105261, -0.0343404710, 0.0192650110, -0.0593121424, 0.1266856641, -0.0555113629, -0.1575636715, -0.1096352860, -0.0047770441, 0.0788532048, -0.1659176201, -0.0219667852, -0.1304791868, -0.0152373910, 0.0691001564, 0.0361329317, -0.1493929178, 0.1236813515, -0.1429469585, 0.0958615392, 0.0811433941, -0.1534794122, 0.0553153157, -0.0805052817, 0.0806632191, 0.1642784923, -0.0258160233, -0.0057118684, -0.1725635678, 0.1620705277, 0.1091280729, 0.1655416638, 0.1606922001, 0.0110984296, -0.0053644925, -0.1459792256, -0.1532247216, 0.0960779935, 0.0421523005, 0.0389276445, 0.0262092054, 0.1093525141, 0.0227173865, -0.1065547317, 0.0284445882, 0.0380096287, 0.0319472402, 0.0144389421, -0.1535847932, -0.1705072671, 0.0431592166, -0.1462369114, -0.1043138504, 0.0403537452, 0.0981277376, 0.0792995542, 0.0471096337, 0.0157519877, -0.1236062497, -0.1655225605, -0.0291197151, 0.1680013090, -0.1142920703, -0.0807188451, 0.0350444317, 0.0940267891, -0.0582649410, -0.0234914720, -0.0301983356, -0.1563204527, 0.0791051537, 0.1111785024, -0.0174604058, -0.1335726976, -0.0192177147, -0.1297847927, 0.1573584527, -0.0718381405, 0.0044880062, -0.1476527750, -0.1523239166, -0.0769534856, -0.0477269590, -0.0702629909, -0.1273445040, 0.0553011298, 0.0251850784, 0.0718796551, -0.0820647776, -0.1603891402, 0.1222310513, 0.1465944499, 0.0044890642, -0.1750976443, -0.0144033730, -0.0395683199, -0.0355170667, -0.1446031779, -0.1547162980, -0.1704685390, 0.0659990311, 0.0152136385, 0.1631893963, 0.0397193134, 0.1142138392, 0.1452126354, 0.0046067536, 0.1644896716, -0.1545215845, 0.1735921055, -0.1514377892, 0.0164500773, -0.1287895739, -0.0712980554, 0.1229200810, -0.0373757035, -0.0423829556, 0.1199799925, -0.1766391695, 0.0296090245, -0.0574861914, 0.0262342989, -0.1244368404, 0.0945743769, -0.0408376157, -0.0036704689, 0.1250740439, 0.0086306483, 0.1120880991, -0.0489515811, 0.0661046505, 0.1279072016, 0.0119739473, 0.0719259381, -0.1715090126, 0.1389474422, -0.0732857212, -0.1350549459, -0.1524880975, -0.1386691928, 0.1208734661, -0.1334326267, 0.0777239949, 0.1287407130, 0.1122599095, 0.1614664346, 0.0213125199, 0.0946599692, 0.0027333349, -0.1163285673, 0.1248639077, 0.1734357923, 0.1540521234, -0.1743040979, 0.1081643254, 0.1575985402, -0.0748819038, -0.0179482102, -0.1397728622, 0.0480042100, -0.0632287040, 0.1627192944, -0.1315344274, -0.0497163385, 0.1628945619, -0.1266474128, -0.1362839788, 0.1278290600, 0.1019119471, 0.0758217722, 0.1342515200, -0.1403574497, 0.1471206993, 0.1025404483, 0.1628630012, -0.1111208200, 0.0492933691, -0.1752508879, 0.0079746097, -0.1180799603, -0.1209178939, -0.0210096389, -0.0819814578, -0.1372062564, -0.1253396869, 0.0368991792, 0.0272033215, 0.0522939265, 0.1367634982, 0.1457745582, -0.1280890703, -0.0683952495, -0.1108944267, -0.0970824584, 0.0844085962, 0.1570201963, -0.1691879481, -0.1472271830, 0.0195930600, 0.0057045370, 0.0910198539, -0.1169345379, -0.0627134740, 0.0957010239, -0.0745235905, -0.1379297525, 0.1620814055, 0.1659352332, 0.0259663314, -0.1725868881, -0.0084339380, 0.1407392472, 0.0229698867, -0.1112408713, 0.0271825194, -0.1325860023, 0.1571920067, 0.0451383889, 0.0933500975, -0.0720963329, 0.1517460495, -0.0614957511, 0.1250765473, -0.0472439677, 0.1029344052, -0.0368864089, 0.0332952440, -0.0771970972, 0.0458436757, -0.0261454880, -0.1069567055, -0.1299598813, 0.0715635419, -0.0671147034, 0.0910657495, -0.0696072057, -0.1661459655, 0.0593050569, -0.1669230610, 0.0188581049, -0.1504864395, -0.0806274042, -0.0730589479, 0.0333973467, -0.1344527453, 0.1010398716, -0.0462480336, 0.0372808427, 0.0577285588, 0.0366867632, 0.0133096129, -0.1621537209, -0.0117247701, -0.0029627085, 0.1450331956, -0.0662122741, 0.0566086918, -0.0039734095, -0.1673887819, -0.1322062165, -0.1489599794, 0.1533858031, -0.0270581245, -0.0474012345, -0.0824718773, 0.0059563667, -0.1312142909, 0.1590137929, -0.1187549382, -0.1421781778, 0.0789616555, -0.0843872428, 0.0128208995, 0.1699714214, 0.1614711136, -0.0835568011, -0.1585894376, 0.0698451847, 0.1573394388, 0.1487040967, -0.0043464601, 0.0289640278, 0.0915023834, 0.1033995301, -0.0606147572, 0.1517118663, -0.1080919579, 0.1399704963, 0.0674899966, 0.1578864008, -0.0958737135, -0.0252193511, -0.0652220771, -0.1716441810, 0.1319971532, 0.0131503791, 0.1485651582, 0.0294113755, -0.1563416421, 0.0609587729, 0.0881225318, -0.1316899806, -0.0862223953, -0.0496134162, -0.0748421401, 0.1127140671, -0.1337273121, -0.0662753284, -0.0723213181, -0.0385122895, 0.0613960773, -0.0391588062, 0.0862080008, 0.0960071832, 0.0496065617, 0.1284524947, 0.0135952234, 0.0121884644, 0.1464498788, 0.0539908558, -0.1163776219, -0.0382718444, -0.0173159689, 0.0366481245, 0.0618153214, -0.0207005441, -0.1536824107, 0.0528806746, -0.1471591294, 0.1107427627, 0.0789852589, 0.0640986711, 0.0811081976, -0.0495071262, -0.0765983760, -0.0917318314, -0.1209999174, 0.0296858400, 0.0689237565, -0.0138267577, -0.0355328023, -0.1372442991, -0.0041368604, 0.0115261078, -0.1581591070, -0.0375958979, -0.1239940822, -0.0070416033, -0.0158724785, -0.1484800279, -0.0184665620, 0.1538927108, -0.0089951903, 0.0463970006, 0.0245464295, 0.1266684383, 0.1261038035, -0.1081484780, -0.0166661888, -0.1325520873, -0.0666941628, -0.0296528637, 0.0243538469, 0.0346095562, 0.0199520439, -0.0494471490, 0.0163930804, 0.1502270848, -0.0690506548, 0.1690091044, 0.0556745678, -0.0215335041, -0.1671952307, -0.0908620507, 0.1470092386, -0.1500493884, -0.0507879704, -0.0292477608, -0.1104803979, 0.0587852150, -0.0206284374, -0.0394571573, -0.0841362551, -0.1219866574, -0.1360170841, 0.1194843203, -0.0879965499, 0.1630423218, 0.1438951045, 0.1273303777, -0.1659120917, -0.0226126313, -0.0881204158, 0.0187710822, -0.1242086589, 0.0184164643, -0.0859552473, 0.1230236143, 0.1657113582, -0.1293579936, 0.0507460535, 0.1730451733, 0.0687597990, -0.0060642362, -0.0562160164, 0.0173768252, -0.0121349692, 0.0294973105, -0.0399570018, 0.1601483375, 0.0587121248, 0.0080006570, -0.0994973481, -0.0379992574, 0.0921737999, -0.1644342989, -0.0127098262, -0.0618451238, 0.0905389637, -0.1359418631, -0.0087302327, -0.0883773491, -0.1253707707, -0.0606723502, -0.1557564139, -0.0507959723, -0.0728534833, 0.0019874275, 0.0557694733, 0.1709849685, -0.0050334930, 0.0900187045, 0.0750288516, -0.0554425344, 0.1060270816, 0.1717481166, 0.0153784752, 0.0356613100, -0.1473648250, 0.1103350371, 0.0038566291, -0.0316339284, 0.0480598211, -0.1762481332, -0.0289205909, 0.0418393165, 0.1293592900, -0.0315883309, -0.1433099210, 0.0330740362, 0.0467240512, -0.0870266035, 0.0048542023, -0.0688656941, 0.1188647598, 0.1009601206, -0.0102580935, 0.0637793988, -0.0522860736, -0.0280284733, -0.1767419577, -0.1261069179, -0.0814779103, 0.1074343175, -0.0222407579, -0.1556420475, 0.1168860346, -0.1486367881, 0.1668241471, -0.0116226226, -0.0689689144, 0.1235700399, 0.1300881654, 0.0139437020, 0.0359712541, 0.1406279057, 0.0168010592, 0.0667364299, 0.0101442039, -0.0517912880, -0.1202103123, -0.0793666691, 0.0970461220, 0.1174294800, 0.0439586341, 0.1305481344, 0.1190293580, -0.0640057027, 0.0928276032, -0.1713333875, 0.0035857558, 0.1743730754, 0.0581764728, 0.1292113811, -0.1237290502, 0.1015795618, 0.0700535178, 0.1484934837, 0.0481152982, -0.1668018550, -0.1108009666, 0.1154340655, 0.0308902115, -0.0300256610, 0.0027246177, -0.1204677820, 0.0546423942, -0.0778950006, -0.0783204138, -0.1044286117, -0.0326302648, -0.0877016932, -0.0907590613, -0.0922146887, 0.0657625645, 0.0909131616, 0.0832863003, 0.1656406373, -0.0403453410, -0.0862743035, 0.1486269981, 0.0210996568, 0.1682503670, 0.1731155962, 0.1281791776, -0.1147112846, 0.1208007187, 0.0583144426, 0.0910968930, 0.1157945544, 0.0370724052, -0.0122102648, 0.0367032737, 0.0671520233, -0.1498697996, -0.0385032892, -0.0263391882, 0.0114632398, -0.0061684400, 0.1438683420, -0.0376980752, 0.1689651459, 0.0817624480, -0.0214905739, 0.1077568382, -0.1637322456, 0.0702485889, 0.0997778028, -0.1485371590, 0.1455041915, 0.0959756523, 0.0586103797, 0.0505002737, -0.0710523799, 0.0803798288, -0.0294832736, -0.0418303460, 0.1664521843, 0.0763541013, 0.0055526793, -0.1067592278, -0.0375729650, -0.0329269320, -0.1070395261, 0.1456734389, 0.0072211474, 0.1511041969, -0.1718103588, 0.1695315689, -0.0147422999, -0.0470097065, -0.1737758517, -0.1082874313, -0.1492695361, -0.1582987607, 0.0530915856, -0.0568175092, 0.0065122843, 0.0196149498, 0.0535599440, 0.0103618503, 0.1270371228, 0.0557479560, 0.0744130760, 0.0262124240, -0.1487540901, 0.0352494270, -0.0036077946, 0.0997406095, -0.0724109635, 0.1386231035, -0.1620065868, -0.1060877666, 0.1511661261, 0.0707035661, 0.0307277441, 0.1030191630, 0.0069624335, 0.0773739070, 0.0990070254, 0.1567954570, -0.0601383448, -0.0338759273, 0.1650088578, -0.0013307631, -0.0234438330, -0.0281410962, 0.1109975129, -0.0803752169, 0.1311625689, -0.1387861371, -0.0263300985, -0.0162020326, -0.1292082071, -0.1181335449, 0.1214151829, -0.1405500621, -0.0749103352, 0.0461329073, 0.0086381882, -0.0128745735, -0.0044252723, 0.0129024833, 0.0012808889, -0.0892227665, 0.0516511351, 0.0063317269, 0.0069336146, -0.1741250902, 0.0850278288, -0.0510848910, 0.1675945371, -0.0722792521, -0.1693415195, 0.1695561260, -0.0382274687, -0.1136553586, 0.1133648604, 0.1428101510, -0.0607357994, 0.0721952915, -0.0490541458, 0.0646629184, -0.0106547922, -0.0565771908, 0.0542712957, 0.1534358412, 0.1235152334, -0.0710868314, -0.1259333491, 0.0685277134, -0.1540721357, 0.0304292291, 0.0470366627, -0.1290018559, -0.0850249007, 0.1188702136, -0.1265447289, -0.0330119580, -0.0988252982, -0.1291369349, 0.1483645588, 0.0988694578, 0.0383478552, -0.1085244268, 0.1335574239, 0.1091768891, -0.0408190489, -0.0368156582, 0.1139398962, -0.1087393314, 0.1616933197, 0.0387122184, -0.1636301875, 0.0578234792, -0.0658954382, -0.0362492800, 0.0046965778, -0.0042192191, -0.1342745125, 0.0575554818, 0.0054011792, 0.0878304690, -0.0620630682, -0.1085658967, 0.1423932761, 0.1085463911, -0.1689945310, 0.1384830326, 0.1380159706, -0.1568531841, -0.0950450599, 0.1257603019, 0.1022407562, 0.0621507317, -0.0717252120, 0.1747101396, 0.0415304303, 0.1180890948, 0.1663774401, 0.1556435972, -0.0209455788, 0.0279429853, 0.0710760504, 0.0523554832, 0.1544900984, -0.0828630030, 0.0793725103, 0.1593727022, 0.0180176944, -0.0431151241, -0.1730309278, 0.0325754285, -0.0385206193, -0.0405091047, -0.0796398371, -0.1560563594, -0.0800543725, -0.0637311563, -0.0362806022, 0.1043956429, -0.0810101628, -0.0922355503, 0.0101530254, 0.1087660640, 0.1464422196, 0.1270122975, 0.0095829964, -0.1193081588, 0.0499877036, 0.0468067229, -0.0593419373, -0.0941377878, 0.1095838398, -0.0251229554, -0.0160661638, -0.0083768964, -0.1407102942, 0.1558170766, 0.1217384189, -0.1190489382, -0.1470940411, -0.0540932864, -0.1576152146, 0.1306455880, 0.1427321285, -0.0106203258, 0.0215619504, 0.0257495344, -0.1347670108, -0.1281023026, -0.1356234848, 0.1103409380, -0.1318551451, 0.0879128128, -0.0858568400, -0.1258899420, 0.0220721960, 0.1226562709, 0.0770988613, 0.1338593513, 0.1233554631, -0.1170683503, 0.0772730261, -0.0114352852, 0.0621142685, -0.1421282142, -0.1406984627, -0.0701573044, -0.1107702851, 0.1309987158, 0.0100081712, 0.0249797553, 0.0433779210, -0.1222624034, -0.1633303314, -0.1418859363, 0.1587206572, 0.0002307296, 0.0422548056, -0.1753082573, 0.1681436151, -0.0853617415, 0.0588071793, 0.0615529567, -0.1334897876, -0.1069036648, -0.1632864922, -0.1103415415, 0.0212709904, 0.0776099116, -0.1460877955, -0.1031283662, 0.1371036023, -0.0346829593, 0.1722187847, -0.0924764872, 0.0807040781, -0.0079530627, -0.1430465877, 0.0289947987, -0.1225986928, 0.1482547969, -0.1420776099, 0.0720008910, 0.0214410871, 0.1475511342, 0.1529531926, -0.1590353400, -0.0786822215, 0.1430662125, 0.1267726272, -0.1281288564, 0.0174168944, -0.1667500585, -0.0627718493, -0.1583659798, -0.0755935088, -0.0269155055, -0.0329354256, -0.1440174431, 0.1249173731, -0.1732542515, -0.1150711179, 0.0765770823, -0.0084536225, -0.0386822522, 0.1626898497, 0.0498488098, -0.0444094390, 0.0173505247, -0.1309408993, -0.1685116887, -0.1175557151, 0.1104562432, -0.0083769858, -0.0246184766, 0.1645312756, 0.1174285561, 0.0305977315, -0.0249224156, -0.0784013346, -0.0130761266, -0.1314209551, -0.0119949877, 0.0414989591, 0.1521024555, 0.1563545913, -0.0821385160, -0.0196333230, 0.1594739705, 0.0837131292, -0.1597159803, 0.1361825317, 0.1186333746, 0.1560890526, -0.1140236631, -0.0677253902, 0.0669577122, 0.1584921330, -0.0692365691, -0.0674943626, -0.1605995595, 0.1710206121, -0.0939364955, 0.1049007922, 0.0508874506, 0.1561183482, -0.1689155847, -0.0892823637, -0.0687183738, -0.0352855921, 0.0929084867, -0.0284521580, 0.1283376366, 0.1683608145, 0.0515205115, -0.1374338567, 0.1327684373, -0.0432527959, -0.1382223070, -0.0189965069, -0.1439189464, 0.0651453435, 0.0360379517, -0.0854298025, 0.0481805652, -0.1211454868, 0.0560101271, 0.1711942703, -0.1625102609, 0.1396840662, -0.0011437386, -0.0677474141, -0.1330351830, 0.0687119216, 0.0420765281, 0.1222315878, 0.0853058845, 0.1486795694, 0.1054462641, 0.0021400005, 0.1393612176, 0.0152151436, -0.0493401140, -0.0758670866, 0.0018895864, -0.0463397205, -0.1418126523, 0.1583664566, 0.0382997394, -0.0920899585, 0.1152798980, 0.1488610357, 0.0536299944, 0.0803392380, 0.1091473252, -0.0832454860, 0.0321606994, 0.0186254680, -0.0000749826, 0.1751228720, -0.0826273113, -0.1365059912, 0.0447699130, -0.0372190326, 0.0825494379, -0.1102621183, 0.0004396737, 0.0262465924, 0.0535371751, 0.0049374551, 0.1177694052, 0.0854712278, -0.0755923316, 0.0293436050, 0.1116016358, 0.0783823878, 0.1159171015, 0.0057326108, -0.1383353919, 0.0691278428, -0.0573105887, 0.0955189019, -0.1402138621, 0.1114933342, -0.0785114840, 0.1671649367, -0.1675681174, 0.0527721494, -0.1761651486, 0.0978774875, 0.0482916236, 0.1536958665, 0.0283008218, 0.0680075437, 0.1126310080, -0.1396090090, -0.1700967401, -0.0249610096, 0.0327790529, -0.1528313011, -0.0371786803, 0.1105423719, -0.0038365424, -0.1411479861, -0.1581631750, -0.1381181031, 0.0387383550, -0.0244255364, -0.0029201061, 0.0735877901, 0.1025189310, 0.0605244190, -0.0958395898, 0.0709923655, -0.0251228362, 0.1007361263, -0.0296224654, 0.0995982140, -0.0419225693, -0.0128289908, -0.1027150676, 0.0652745068, 0.1529698223, -0.1143978387, 0.0893478543, 0.0518755466, 0.0603401065, 0.0243302733, 0.1729520708, -0.1544824690, 0.0580640286, 0.1528207213, 0.0845390409, 0.1643695384, 0.0136220157, -0.1541206986, -0.0403105915, 0.1754033417, -0.0543752089, 0.0212012380, 0.0581331402, 0.1712362021, -0.0403001010, 0.1576824039, -0.1495128870, -0.1717377156, 0.0301011950, 0.1528118402, -0.0848801881, -0.0364454687, -0.0040309727, -0.0574795157, -0.1329341978, -0.1297828704, -0.0536798090, -0.0433195233, -0.1612954587, 0.0329384953, 0.1642268449, -0.1734221876, -0.1542024612, -0.1327121258, -0.0744389221, 0.1705141217, 0.1014089733, 0.0056655258, -0.0236786306, 0.0384473056, -0.1311063468, -0.0480033457, 0.0588873178, -0.0948457047, -0.0598967001, 0.0790302008, 0.0564754307, -0.1343658119, -0.1180019677, 0.1668449193, 0.1082048565, 0.1006404012, -0.0694223940, 0.1435921043, 0.1281362921, -0.1459108442, -0.0353120565, 0.1628379673, -0.0805293322, -0.0726717412, 0.1188580245, -0.0267401040, 0.1434015185, -0.1736123860, -0.0662020147, 0.0358411372, 0.0057556629, -0.1232059821, -0.0747562200, -0.0281777531, -0.0408914387, -0.0068605989, 0.0704199225, -0.1562791765, 0.0995893031, -0.1744528413, 0.0290206075, -0.1131723151, 0.1716567427, 0.1016495079, -0.1511785686, 0.0633431077, -0.1601467729, -0.1400302500, -0.0190504193, -0.0115272403, 0.1295695752, -0.1531646401, 0.1041314453, -0.1120380163, 0.0781282634, 0.1675568074, 0.1035179943, 0.1236540824, -0.0107726455, -0.1670897454, -0.0958041698, 0.0606633127, 0.0828059465, 0.0326941460, 0.0338241160, -0.0424280316, -0.1731188893, 0.0446980447, 0.0023972243, 0.0173121095, -0.1689944863, -0.1648064852, 0.0763519555, 0.1215936691, 0.0440109223, -0.1630115062, 0.0962889940, -0.0755546913, -0.1186998338, 0.1183866709, 0.1479739398, 0.0017104447, -0.1457672566, 0.0203823447, 0.1282703131, -0.0676788837, -0.0528632775, -0.1553051472, -0.0617420375, 0.0403418839, -0.0844038650, 0.1584153324, -0.0065076798, 0.1048301607, 0.0435835421, 0.1304026991, 0.1469275206, -0.1175901443, -0.1430974901, 0.1569854468, 0.0818967968, 0.1125064939, -0.1545066088, 0.0357755572, 0.1487060338, 0.0931404978, 0.0726549774, -0.0798206106, 0.1263671964, 0.1558165699, 0.0812245756, -0.1357696056, -0.0511399060, -0.1763859689, -0.0377752781, 0.0502251536, -0.1439677924, -0.1057832390, -0.0305181891, 0.0055921078, -0.1197603717, 0.0460410118, 0.1061801463, -0.1427875757, 0.0859891623, 0.0458656996, -0.1603580564, -0.1245007366, -0.0099045485, 0.0876810402, 0.1364436597, 0.1420132071, 0.1431687921, -0.0159785450, 0.0124848634, 0.0147309750, 0.0851521939, 0.1056624502, 0.0433013290, 0.1040825397, 0.0553904772, -0.0108461976, -0.1627174467, 0.1750130504, 0.0717150122, 0.1164364368, 0.1444096714, 0.1113411337, -0.0266046673, 0.1174114496, -0.1158250123, 0.0382205993, 0.0626697242, 0.1061353832, 0.0489533544, 0.1261665374, -0.1258572340, -0.0988214836, -0.1564247161, 0.1055237204, 0.1532367319, -0.1600974202, 0.1644506007, 0.1647601277, 0.0172712654, -0.0700858459, -0.0068635792, 0.0077320486, -0.0349288434, 0.0685667098, 0.1263459176, 0.1034726351, -0.0557327121, -0.1275927722, 0.1180715114, -0.1668408662, -0.1325719953, 0.1735209972, 0.0561618805, 0.1610880345, -0.0859607533, -0.1664048135, -0.1148552373, -0.1069456041, 0.0302845985, 0.1088539809, 0.0037375391, -0.0482013077, 0.0632198304, 0.1711225361, 0.1668325514, -0.1166537702, -0.0434977859, -0.0425536335, -0.1400579810, -0.1036089212, -0.0161134005, -0.1588816643, 0.1732259542, 0.0508587509, 0.0365859121, 0.0058608949, -0.0109603107, 0.0830525011, 0.0875879675, 0.0176862925, -0.1491698325, -0.1602723300, 0.1618469805, 0.1495315284, -0.0072595626, 0.0018729419, -0.0480994731, 0.1075860113, 0.0436139107, -0.1487804800, 0.0354172587, 0.1348110884, 0.0780331045, 0.0247517675, -0.0828589946, -0.0474502891, -0.0625904053, 0.1556702107, 0.0184894502, 0.0863558501, 0.0067490190, -0.1403758675, 0.1006823629, 0.0244879872, -0.1706335396, 0.1700127274, -0.0000469983, 0.0461892933, 0.1008565277, 0.0407285690, 0.1036537439, 0.1467729956, 0.0884410590, 0.0442966521, -0.1725908369, -0.0491102636, 0.1637379080, -0.0391742736, 0.0673276931, -0.0506415516, 0.0963540822, -0.1196238399, -0.0023054779, -0.0965116844, 0.0074116290, 0.1381504387, -0.0069188327, 0.0899781138, 0.1062918752, 0.0803618580, 0.1196775585, 0.1083311886, -0.1145256087, -0.1438691467, -0.1376305819, -0.1263854802, 0.1631366462, 0.0145580620, 0.0143023282, -0.1068455651, -0.0972852930, 0.0362918973, -0.1103832275, -0.0743072107, 0.0027476400, -0.1487347782, -0.0513211489, -0.0181796402, 0.0205993354, 0.0074844956, 0.0045571029, 0.0482269377, 0.1513602585, -0.1712187678, -0.0901730731, -0.0048546195, 0.1382177621, -0.1508867294, -0.0618038401, -0.1702757776, -0.0071608275, -0.0158473849, 0.0848855525, -0.0149668157, -0.1039426178, 0.0366282463, 0.0650308579, -0.0130744576, -0.0687814653, 0.1181202084, 0.0213020891, -0.0035552382, -0.1634133011, 0.1101263314, -0.0252971500, 0.0382994115, 0.0039753169, -0.1352297813, 0.1326453239, 0.0631532967, -0.0164329559, 0.0598615110, -0.1260339767, 0.0222846419, -0.1497226655, -0.1344432831, 0.0854085535, 0.0737756342, -0.1114900261, 0.0717487484, -0.1002352536, -0.0282884538, -0.1348192543, -0.0238659829, 0.0723209828, 0.0059234798, -0.0832451880, 0.1524709314, 0.0606742203, -0.0240838677, -0.0557416081, 0.0609268248, 0.0088250637, 0.1178388149, -0.1243706644, 0.1285650283, 0.0212526768, -0.1549863219, -0.0925142914, 0.0072470456, -0.1757746041, -0.0245966613, -0.0967250541, 0.1196506470, -0.1490335912, -0.0228442848, -0.0405690521, 0.1766817421, -0.0980070606, -0.1273143291, -0.1451566964, 0.1170944422, -0.1574072242, 0.0995685607, -0.1254240274, -0.0818607062, 0.0559072495, 0.0864873081, -0.0495415479, -0.0370798856, 0.1221137792, 0.1577510089, 0.0020126402, -0.1444281489, -0.0258304179, 0.0142109543, -0.1610548645, 0.1609440893, 0.0879902989, -0.1000655070, 0.0280108154, -0.1744670421, -0.0793813765, -0.0458349735, -0.0061845481, 0.0214963853, -0.1203318387, -0.1666558236, -0.0146040022, 0.1668895334, -0.0126850903, 0.1738491207, -0.0597257465, -0.1425393969, -0.0110293627, -0.0423401594, -0.1506893337, 0.0334043205, 0.0883041471, -0.1489372402, 0.1412332803, -0.0619358495, 0.1289481074, -0.1083858460, -0.1749683172, -0.1009607911, 0.1023005396, 0.1620499343, -0.0677145347, -0.0919764787, 0.1231034249, 0.0423997641, 0.1380457431, 0.0866686553, 0.0074077100, -0.1735848635, -0.0066668987, 0.0493734032, -0.0453905910, 0.0174479783, -0.0227702558, -0.0479411781, 0.1511464566, 0.1666728407, -0.1738589555, -0.0822627842, 0.0600827336, 0.0181181878, 0.0810015053, -0.0320569277, 0.0185810775, 0.0068303794, 0.0679353625, -0.1233193800, 0.1592716426, -0.1390408874, -0.0988672525, -0.0554892719, 0.0253677517, 0.0074185431, 0.0395475477, 0.1425495595, -0.1547857374, -0.0363991410, -0.0216291547, 0.0271579921, -0.1129285768, -0.0895070285, 0.0863426477, 0.0555794239, 0.1013537794, -0.0008159429, -0.1702784002, 0.0605531782, -0.0716394410, -0.0744433850, -0.1348524839, -0.1258782148, 0.1375129074, -0.1025714353, -0.0628796592, -0.0296662599, -0.0201282799, 0.0744721442, -0.0045174509, 0.0073583275, 0.1335986704, 0.0968914181, -0.1250768602, -0.0613588542, -0.0568717569, 0.1665145606, -0.1383708417, 0.1644697934, 0.0574210584, -0.1639157683, -0.1008088738, -0.0765378550, 0.1157253236, 0.0336190164, 0.0356184095, 0.1222458929, -0.1644101143, 0.0559178889, 0.0474373996, -0.0341053605, 0.0253341943, -0.1448317766, 0.0238481760, -0.1630959362, 0.0814096779, 0.0820153207, -0.0358347297, 0.0767982155, 0.1734444052, -0.0063550323, -0.1611877084, -0.1603183895, 0.0952626318, 0.1641003042, -0.0329014063, 0.1438556463, 0.0100572258, -0.0180521905, -0.1535130292, 0.0017040223, 0.0564102232, 0.1579546481, -0.1677838415, -0.1754241437, 0.0333755165, -0.1541602314, 0.1543843597, -0.0734708682, 0.1634757668, -0.1702555269, 0.0422030538, 0.0000005215, 0.0784312040, 0.0030471534, -0.0737909749, -0.0453061610, -0.1011407822, -0.0378638655, -0.1597186625, -0.0359391719, 0.0287380666, -0.0885048211, -0.0726600513, -0.0592562780, -0.1137541756, -0.0168843269, -0.0361882597, -0.0154693425, -0.1285658181, 0.1377036422, -0.0446243733, -0.1072871163, 0.0179464221, 0.1307182759, -0.1420284510, -0.0409556031, -0.0268990397, -0.1274971217, -0.1627002954, 0.1479883045, 0.0925197154, -0.0646190420, 0.1734266430, -0.1567705870, 0.0491606891, 0.1665172428, -0.1492397487, 0.0414231271, -0.0017560273, -0.0768337250, 0.1321042925, 0.1201251894, -0.1430578232, -0.1025701091, 0.0508813113, 0.0436600894, 0.0562959611, -0.0685272142, -0.1761529595, -0.0876299590, -0.1500774920, -0.0092503428, -0.1246684343, 0.1286597699, -0.1559165567, -0.1762119830, -0.1102192327, -0.0017123371, 0.1262332648, 0.0060933232, -0.0311197788, -0.1329415143, -0.0654204413, -0.0651879385, 0.0622421503, -0.0881351456, -0.0906297565, 0.1362469643, -0.0446609706, -0.0271642506, -0.0716020390, -0.0419366360, -0.1511027664, -0.0836999938, 0.0754538327, 0.0515553951, -0.1650571227, -0.1762303412, 0.1352709681, 0.0246488452, -0.0626148358, 0.0181469619, 0.0706892163, 0.0085162371, 0.0101102144, 0.1767161041, 0.1534700245, 0.0743236989, 0.0828826278, -0.0306637436, 0.1199892610, 0.0363353491, 0.0137417316, -0.0333156735, -0.0942147300, 0.1208898872, -0.1221683025, 0.1180317849, -0.1242232174, -0.1205835864, -0.1396462470, 0.0678346157, -0.0712228417, 0.0838190466, -0.0480481684, -0.1010520384, 0.1608106941, -0.0014914721, 0.1584058553, -0.1008266807, 0.1705824882, 0.0825747699, 0.0695091337, -0.0543665290, -0.1310377717, 0.0115570724, 0.1159484535, 0.0715855211, -0.0564604849, -0.0477796495, 0.0265969932, 0.1584529132, 0.1567672938, 0.0009997189, -0.0616960302, 0.1448328048, -0.0925826505, -0.0007463396, -0.0433724821, 0.0895917565, -0.1753773093, -0.0785046816, 0.0390989631, 0.1029466838, -0.0412420332, 0.1219874471, 0.0159142017, 0.0113693923, 0.1388161629, -0.1295777857, -0.0710975602, 0.0672880262, -0.0703713521, -0.1216793805, 0.1605795473, -0.0528377518, 0.1511975974, -0.0439426601, -0.1703405380, 0.0449587107, 0.1308259517, -0.0752625763, 0.1517231911, -0.0660089999, 0.1516037434, 0.0538685024, -0.0280857086, 0.1126990765, -0.0869504884, 0.1484235674, -0.1397243887, 0.0560589880, 0.0972978622, 0.0176672786, -0.1452557147, 0.0342144072, 0.0660493523, 0.1728407592, -0.0521072224, 0.1411301345, 0.0167241246, 0.1554083973, -0.0016472936, 0.1413930207, 0.0780327171, 0.0166202039, 0.1658147722, -0.1416693330, -0.1767004430, -0.1070272624, 0.1640725285, 0.0288192779, -0.1607914269, -0.1440305263, -0.1549691111, 0.0947546214, -0.0579189137, 0.0170513541, -0.1177737862, 0.0931357592, 0.1104573160, 0.1451988965, -0.0772307888, 0.0246690512, 0.0766368061, -0.1473240554, 0.1108686477, -0.1388048232, -0.0002906173, 0.1229319125, -0.0933072194, -0.1030199826, -0.0090547204, 0.0903373808, -0.0699190497, -0.0388112217, 0.1273667961, -0.0340847224, 0.0764595121, 0.0221480876, 0.0427083671, -0.1089577749, 0.1152381748, 0.0843706280, 0.1132049710, 0.1395887285, 0.0808688849, -0.0204642564, 0.0267246664, -0.1696878523, 0.1459154338, -0.0261591226, -0.0433357209, 0.0139843524, 0.1686427444, 0.1114984602, 0.1274992675, 0.1724861115, 0.1424305588, 0.1604847163, -0.0875947401, -0.0636709705, -0.0382784158, 0.0324760377, 0.1082497388, 0.1349095851, 0.0992812067, 0.1289423853, -0.1461543441, -0.1350028813, 0.0853802115, -0.1553663611, 0.1162189990, 0.0725094378, -0.1326406896, 0.1703214198, 0.0039113611, -0.0196934938, -0.1661394387, -0.1544886827, -0.0871668011, 0.0819948465, -0.0682386756, -0.1136070415, -0.1487284303, -0.0035324991, 0.1709413677, -0.0520787537, 0.0410418659, -0.0091034174, -0.0086926967, 0.1262568384, 0.0274404585, 0.0210776627, 0.1464981586, 0.1491283923, -0.1192815602, 0.1006594747, -0.1611460745, -0.1479150802, 0.1733618230, 0.1510834545, 0.1504493505, -0.0641268939, 0.1123494357, 0.1600546390, -0.1473417133, 0.0353980660, -0.0220426321, 0.0741669983, -0.0720635056, 0.0960978121, 0.0709575713, -0.0031682700, -0.0676646382, -0.1557427049, -0.0069141090, 0.0501867533, 0.1113309115, -0.0584990457, 0.1037116498, -0.1477209777, -0.1555691361, -0.0533576757, -0.0818283334, 0.1047020406, -0.0948253274, -0.0051224828, 0.0758007318, -0.0802864805, -0.1250070482, 0.1140790135, 0.1047247499, -0.0254800916, -0.0063553452, 0.0268346220, -0.0675324872, -0.0516833961, 0.0855263025, -0.0478877574, -0.0537607521, -0.1037211791, -0.0278661102, 0.0889915377, -0.1098457053, 0.0723382086, 0.1006876677, 0.0214016587, -0.1266320348, 0.0281869471, -0.1032071337, 0.1441042572, 0.1275359243, 0.0110849142, -0.1320343018, 0.1623166651, 0.0109611303, 0.0688421130, -0.0166441202, -0.0376955122, 0.1351689547, 0.1182338446, -0.1444148272, -0.0322491080, -0.1082273126, -0.0223123133, 0.1262964159, -0.0124817640, 0.0769907385, 0.0756149143, 0.0785817355, -0.1642445773, -0.0492515564, 0.1122910529, -0.1264153868, 0.0291671753, 0.1311676353, -0.0395626724, -0.1465493441, -0.1749762595, -0.0566748679, -0.1728955358, 0.0725587308, 0.1101470441, -0.1685342044, -0.0295456499, 0.0647000074, 0.1320345849, -0.0497553796, 0.0548995584, 0.1379153877, -0.1737185568, 0.1135684401, -0.0592545941, -0.1632990092, -0.1513582468, -0.1527064145, 0.0346413106, 0.0749597400, 0.1166715473, 0.0485927910, -0.0630533472, -0.0395966470, -0.0806703120, 0.0951933116, -0.1325044632, 0.0980132371, 0.1036242992, -0.1495116651, 0.0368271768, -0.1511268318, 0.1071286649, 0.1550505012, -0.1153450459, 0.0913801938, -0.0666287094, -0.0399364382, -0.0616438091, 0.0839260072, 0.0705150515, -0.0158591568, 0.1651852876, -0.1040687636, 0.1667920500, -0.0590462610, -0.1065997705, -0.0670731664, 0.0815931708, 0.0668734312, -0.0282006413, 0.0221451968, -0.0518033653, 0.0306834131, -0.1741164327, 0.0661082417, 0.0345185250, 0.1351790875, 0.1162245721, -0.1260889471, 0.0624851882, -0.1530009210, 0.1314097494, -0.1392540485, 0.0298649967, -0.0585253015, -0.1134829372, 0.1158811599, 0.1593855768, 0.1321439296, -0.0947757214, -0.0709134415, 0.1394311935, -0.1317122728, -0.1288396120, -0.0537580103, 0.0084246099, 0.1740266830, 0.1705736965, -0.0027345121, 0.1030869335, -0.0488002598, 0.1585389227, -0.0384998322, 0.0461761504, 0.0136058182, -0.0233701169, 0.1719344109, 0.1703000516, 0.1006316990, -0.0283296406, -0.0102802068, -0.1635925621, -0.0615858138, 0.1716199070, -0.1300502270, 0.0373303443, -0.1698049307, 0.0955241770, 0.1248489171, 0.0097130090, -0.0447312146, 0.0577867031, -0.0598577932, -0.0442762971, 0.1441100687, -0.0740478411, 0.1716972440, -0.0088674724, -0.0675392523, 0.1225792617, 0.1018661410, 0.1286286563, 0.1626648456, -0.1373771727, -0.0268902630, -0.0134726018, 0.0823809654, 0.1761621088, 0.0309821218, 0.1667263955, -0.0703080222, 0.1491349488, -0.1376855373, 0.0139693618, -0.0638807118, 0.0048315078, -0.0862006098, -0.0920306742, 0.1283873767, -0.1454149187, -0.1032011509, -0.0088946521, 0.1676553637, 0.0152546763, -0.0937955305, 0.1480935663, -0.0198548734, 0.0146117359, -0.0585753322, -0.1662446856, -0.0880358741, 0.0357627422, 0.0918667167, -0.1106122732, 0.1295704395, 0.1145968884, 0.1376401037, 0.0159014016, -0.1439917684, 0.0020607561, 0.0402644873, -0.1508169472, 0.1178043634, -0.1311405301, -0.0870984197, -0.0315503925, 0.0918816179, 0.1403736621, -0.0583452284, 0.1563391238, 0.0304433256, -0.0968188569, -0.0967010111, -0.1248968691, 0.1567051262, 0.0519682914, 0.0658782870, -0.0392727852, 0.1669197232, 0.0132087618, 0.0733060688, -0.0124456733, -0.0230458826, -0.0175331235, 0.0576767772, 0.0560574532, 0.0258062482, -0.1515412033, 0.0470935404, 0.0197635442, -0.0324569345, 0.0939788073, -0.0168758482, -0.1515507102, 0.0276135206, 0.0301914960, -0.1625128537, 0.0962462574, -0.0657409057, -0.0859006718, -0.1066840366, 0.1042079479, -0.0410645753, -0.0310596824, -0.0051967949, -0.0413456857, -0.0275626630, 0.1703397781, -0.1226798594, -0.1724574566, 0.0253430456, 0.1436986178, -0.0562514365, -0.1632980108, 0.1689908355, -0.0334855020, 0.1542175561, -0.0494443774, -0.1010240540, 0.0145545900, 0.0766196102, -0.1602007002, -0.0295907110, -0.0462124348, -0.0501283854, -0.1043933183, -0.0638905540, -0.0312310010, -0.1037837267, 0.1446527988, -0.1609751433, -0.0063077807, -0.0557159409, -0.0453538001, 0.1024159044, 0.0333043486, -0.1211377755, 0.1348109394, 0.0480122715, -0.1295048296, 0.0614540726, -0.0055425465, -0.0244136006, 0.0317790955, 0.1001680940, 0.1096393913, -0.0175992399, 0.0755055398, 0.0156522244, 0.0554058701, 0.0611336678, 0.0137567371, 0.1492578834, 0.0792279691, -0.1111994460, -0.1721846461, -0.0925569832, 0.0901858062, 0.0951278359, 0.1424850971, -0.0236123651, -0.1268206686, 0.0876140445, -0.1759994030, -0.0612179562, 0.0982604772, 0.0664625019, -0.0596337616, 0.1068573147, -0.1439669728, 0.0655813962, 0.0669963509, -0.0731952488, 0.0116583258, -0.0100115836, -0.1194527596, 0.0682553798, 0.0069208294, -0.1128761694, 0.0186597556, 0.1334178001, -0.1441515386, 0.1473911554, 0.0992215723, -0.1199131608, 0.1291875392, 0.0337186605, -0.1369869411, -0.0333770216, 0.0450349748, -0.0805404559, -0.1271401048, -0.0455910712, -0.1265700608, 0.0061146617, 0.0181144625, 0.1600362808, 0.0035661906, -0.1612569094, -0.1446186006, 0.0425575972, -0.0753697082, -0.1668445170, -0.0749364644, -0.0129777342, 0.0591502339, -0.1601383835, 0.1059084982, 0.0786735266, 0.0941127688, -0.0229994357, 0.0345640182, -0.0499209464, 0.1675450355, -0.0888500437, -0.1566727161, 0.0262744874, 0.0392184407, -0.0190744549, 0.0360683799, 0.1570829600, 0.0274105817, -0.0022102892, 0.0615834743, -0.0613402501, 0.1125889868, 0.1293147355, -0.1192990392, 0.1301165670, 0.0334542543, 0.0549797267, 0.0027859658, 0.1335185915, 0.0442227721, 0.1256181747, 0.0069669932, 0.1503104120, -0.1691770256, 0.0639804602, -0.0302882046, -0.1634545773, -0.1450609863, -0.1431718767, 0.0384274125, -0.0296559185, 0.1536961347, 0.1027539223, -0.1653919071, -0.1447804123, -0.1456187963, 0.0976576358, 0.0556330979, -0.0750120506, 0.1474182755, -0.0707156882, 0.1187207252, 0.1461846679, -0.1167943329, 0.1342882067, -0.0386705697, 0.0301699638, -0.1551364511, -0.1198572889, 0.1400265247, -0.1045920774, 0.1103427559, -0.0155710876, 0.0672791153, 0.0250251740, 0.0731654167, 0.0041985214, 0.1070494205, -0.1489269882, 0.1656605154, -0.0650870800, 0.0865402073, 0.0338834524, -0.0437690020, 0.0085278600, 0.1583741754, -0.1357366443, 0.1207251102, -0.0555505157, 0.0366551280, -0.0641255677, -0.1332520694, -0.1541716903, 0.1131319553, -0.0636496022, 0.0950842053, 0.0262416601, -0.0467220545, 0.0321836472, -0.1138712168, -0.0361236781, -0.0689722225, 0.1297689825, 0.0904887170, 0.0889044255, 0.1425201446, 0.0028673112, -0.0201045126, 0.0869193524, 0.1475166231, 0.1664201468, 0.1457838267, 0.0476001650, 0.0234551877, -0.0535838827, 0.1556345373, 0.1704237014, -0.1060264632, 0.1283170730, 0.1016457528, 0.0582581609, -0.0496598035, -0.1476503611, 0.1050727516, 0.0049913675, -0.1709829122, -0.0687904805, 0.0425955504, -0.1125817522, 0.1469076425, -0.0705871433, 0.0134198666, -0.0031341463, 0.1481161863, -0.0649020374, -0.1721020788, -0.1717676818, -0.0261441916, -0.0803089887, 0.1540577859, 0.0315408260, -0.1116908714, 0.1614639610, 0.0333488137, -0.1370977461, -0.1210977584, 0.0928499550, -0.0137030631, -0.0241507292, 0.0901792496, 0.1238477081, -0.0030402988, 0.1060816795, -0.1138948798, -0.1257922649, -0.0877610520, 0.0335612893, 0.0587693304, -0.1348276585, -0.0123077631, -0.0406578779, -0.0908242464, 0.1475831419, 0.1323793679, -0.1392886937, -0.0957492515, -0.1466792524, 0.1632062644, 0.0341131687, 0.1256337613, 0.1116355211, 0.0857033283, 0.1127318293, -0.0897114649, 0.1114865392, -0.0158372670, -0.0655235350, 0.1002332717, -0.0423098505, -0.0021114945, -0.0695921183, -0.0953028128, -0.1211401522, -0.1761369258, -0.1538484991, 0.0720757693, 0.0571075082, 0.0143445730, 0.0849629790, 0.0378132015, -0.1673619449, -0.0103149563, 0.0749187618, -0.0975038037, 0.0730205327, -0.0956550315, -0.1181033477, 0.1141680032, 0.1184563786, -0.0323130637, -0.1169091761, -0.1204975843, 0.1395353228, -0.1584323794, -0.0487360060, 0.1668050438, 0.0599893332, -0.1068865135, 0.1357951313, -0.0285194069, 0.0277428180, 0.1255799979, -0.0903592184, 0.1532004029, -0.0031014979, 0.1293085366, 0.0061454177, 0.0228219479, -0.0371854901, -0.1402867138, -0.0588371456, -0.0290667266, 0.0675165355, 0.1009310633, 0.1670843512, -0.1765436679, -0.0796573311, 0.1415405422, -0.1467716396, 0.0549759418, 0.0066601336, -0.0640904531, -0.0743060485, -0.1052493155, 0.0620209873, 0.0285984725, -0.0258883387, 0.0854347199, -0.1045996696, 0.1620896906, 0.0406856984, 0.0510406196, -0.1709734946, 0.0491132587, 0.0009609759, 0.0767970234, -0.1036004275, -0.0736026615, -0.1448198855, 0.1365289837, -0.1694978476, 0.0017933846, -0.0184120238, 0.1417754740, -0.0712158903, 0.0460496694, -0.0435526073, 0.1269356757, -0.0362479985, 0.1645139903, -0.0657588169, 0.0129586607, 0.0114835650, -0.1605009288, 0.0916395038, 0.0364213437, 0.0474984646, -0.1339072734, 0.0815310031, 0.0455413759, -0.1676753312, 0.1115050167, -0.1044917926, -0.1431290060, 0.1019847840, 0.1418735534, -0.1187728494, 0.0452565104, -0.1345979571, -0.1046889946, 0.0811944157, 0.1111488193, -0.1530384719, 0.1395404190, 0.1697946042, 0.1350605339, 0.1577623934, -0.1442510039, -0.0476332307, -0.0487973094, -0.0671363249, 0.0356748253, -0.0902181268, -0.1348392367, 0.0092517585, -0.0908482894, -0.1327364147, -0.1286376566, -0.0640964210, 0.0699210465, 0.1475716382, 0.1363785416, -0.0368393511, 0.0216589421, 0.0830502063, 0.0884974152, 0.0429761708, -0.0495364070, 0.1705595404, -0.0718593225, 0.0614522696, -0.0176084489, -0.1744534671, -0.0227282345, 0.0781787485, 0.1437630802, -0.0758927315, -0.1104295030, 0.0452867895, -0.0012778938, -0.0699113756, -0.0201346278, -0.0455771536, 0.0787096471, 0.0098467618, 0.1507600993, 0.0103335828, -0.0006718189, -0.1753514558, -0.1011581272, -0.0769015774, -0.1016495600, 0.0835338384, 0.1198479086, 0.0585776716, -0.1463956833, 0.1699662954, -0.0899930224, 0.1289793700, -0.0246363133, -0.0772110894, -0.0515948236, 0.1025702804, 0.0152728409, 0.0742727965, 0.0413472801, -0.1386687756, 0.0355433375, 0.0914324373, 0.0014404356, -0.1087286919, -0.0404048711, -0.1026642844, -0.0110198855, 0.0030412525, -0.0984570831, 0.1543465406, -0.0032538772, 0.0905793756, -0.0631183609, 0.0383466184, 0.1280425042, 0.1463203579, -0.1339491904, -0.0065601319, -0.1507323384, 0.0798962265, -0.0513212681, 0.1604446322, -0.0206808001, -0.0476463437, 0.1578372568, 0.0189821571, -0.0414718390, -0.0784051716, 0.1477270275, -0.0219424516, -0.1483314484, 0.0681919605, -0.1100770682, -0.1715781391, -0.0441870540, 0.0095881820, 0.1054290980, -0.0296261013, 0.1670813709, -0.0096953958, -0.0406431109, 0.0103754848, 0.0768965930, 0.1085383445, 0.1666360646, 0.0802214593, 0.1714394540, -0.1112588719, -0.0948941335, 0.1417613775, 0.0165622383, -0.0123921037, 0.1177302748, -0.0370879769, 0.0544685423, 0.0997213870, 0.0986799449, -0.0536401272, 0.1328613311, 0.0950713009, -0.0477808714, -0.0807123929, -0.0556773171, -0.1673773378, 0.1387144178, 0.1116889566, 0.0912144333, -0.1534893513, 0.0732756406, -0.1444879323, 0.0525339991, -0.1289438903, -0.1614489406, -0.0290632695, 0.0344713330, -0.0617330149, -0.1552839130, -0.1468727887, 0.1101120561, 0.0262952745, 0.0763273686, 0.1033528298, -0.0788759291, 0.0966732949, 0.0551184267, -0.0013425648, -0.1244705617, -0.1600959152, 0.0367082804, -0.0803372860, 0.0234883279, -0.0478901118, 0.0800912827, -0.0170965791, -0.0128263384, 0.1263788491, 0.1186995655, 0.0541698933, 0.1200919300, 0.1438881904, -0.1033252329, 0.0782989711, -0.0814712495, -0.0749373883, 0.1434292942, 0.0106976777, 0.0125406235, -0.1722877771, 0.0853397995, -0.0370675623, -0.1462305933, 0.0674595684, -0.0625867620, 0.1239852160, 0.0502709299, 0.1704025716, -0.0973609909, 0.0112877488, 0.0265518427, -0.1673400998, 0.1652593166, 0.0906477422, -0.1420169771, -0.0021391362, 0.0680959076, -0.1375653893, 0.0047335178, -0.0017164946, 0.0661141425, -0.0914554968, -0.0790201351, 0.0576450825, -0.0829279274, -0.0178644657, 0.0039297789, -0.0680308491, 0.1211795956, 0.0132947862, 0.1056160480, -0.0591508448, 0.0716735423, 0.1292785257, -0.1233643740, -0.1618346870, -0.0385807455, 0.0933686048, -0.1164711714, 0.1372267753, 0.1627006680, -0.1030090898, -0.1746852994, -0.1575610042, 0.1556441933, -0.0055107623, 0.0158641636, 0.1051929742, -0.0706092492, -0.1393214464, -0.0774648935, 0.1292779595, -0.0423398763, -0.0336811692, -0.0835244134, -0.0412529558, -0.0225993544, -0.1532232016, 0.0563642681, -0.1766852289, 0.1698407680, -0.1382055432, -0.0561124831, -0.0585962981, 0.1310982257, 0.0782374591, 0.0466442555, -0.1566300839, -0.1257695258, -0.1098041683, -0.1086947620, 0.0065560937, -0.1153370813, 0.0044778734, -0.1592839360, -0.0428329706, -0.0574502647, -0.1713728607, -0.0764452815, 0.0996288806, 0.0110740215, -0.1359418780, -0.0638197660, 0.0029256046, 0.0302979350, 0.1012855023, 0.1260447949, 0.1500440985, 0.1398692876, -0.0413425565, -0.0830791518, -0.0525440350, -0.1310204118, 0.0255313814, -0.0775383115, 0.0226085037, 0.0233293772, -0.0842198133, 0.0300468504, -0.1766509265, 0.1183841377, -0.0489192307, -0.0395560414, -0.0341429114, 0.1482950002, 0.0935531110, -0.0012388080, -0.1343761086, -0.1399200261, 0.1103704423, 0.1176330596, -0.1132391393, 0.1155514866, -0.0768955350, -0.0029491484, -0.1585728824, 0.1535085291, 0.0858266503, -0.0071452111, -0.1307717562, 0.0071772933, 0.0605929047, -0.1428591460, 0.0038195848, -0.0338077545, 0.1460726708, -0.0738612562, -0.1155677512, 0.0271854997, -0.1698154062, 0.0263276398, 0.1476448923, 0.1499018520, 0.0095035434, 0.1758065969, 0.0606290400, -0.0316656679, -0.0834318101, -0.0145621151, 0.0832169801, -0.0358302742, 0.0889510661, -0.1487173885, -0.1395891607, 0.0082332790, -0.0397572219, -0.1684521884, -0.1084696352, -0.0687430501, 0.1219303757, 0.1098115295, -0.1056752354, -0.1687988192, -0.1638832688, -0.0002755970, 0.0938020200, 0.0822089463, 0.1049038321, -0.0688506663, -0.1393966973, -0.1474133879, -0.0956309438, 0.0265855342, -0.0917446464, -0.1651133746, -0.1060815528, -0.1040158942, -0.1646864712, -0.0905183181, -0.0563585311, 0.0845560580, 0.1719705313, 0.0605726540, 0.1557108611, 0.0647384673, -0.0674945340, -0.0266980231, -0.0867183432, -0.1731477231, 0.0093526244, 0.1548858732, 0.1226956397, 0.1154986769, 0.0823116452, -0.0230350792, 0.1625202447, -0.0884578899, 0.0314623266, -0.1230847090, -0.0919861272, -0.1499117017, -0.0522147790, 0.1314146966, -0.0503266901, -0.0544463545, 0.0287449062, 0.0005647242, -0.1092540696, -0.1428517252, 0.1488557011, -0.0264176428, 0.1148434728, 0.0723198354, -0.0968291759, 0.1708128601, 0.1186299473, -0.0847110525, -0.0298857242, 0.0724953115, -0.1684507728, 0.1629509181, 0.1691126376, -0.1174984127, 0.0683580637, 0.0789916366, -0.0143938065, 0.1407358199, -0.0929014534, -0.0446512401, 0.1071793884, -0.1575986594, 0.1050490588, 0.1373979300, -0.1162054539, 0.1227159351, -0.1238970011, -0.1710794121, -0.0087607354, 0.0272787958, -0.1379355490, 0.0954307765, 0.1435309500, -0.0790903270, -0.0928729400, 0.0154313147, -0.0228508860, -0.0590075254, -0.0685190186, 0.0387434959, -0.1388714612, -0.1516321003, -0.0308212042, 0.0823155195, -0.0690974817, -0.1730145216, 0.0884220153, -0.0336529911, 0.1056225747, 0.0937251002, 0.1513373107, -0.0783640370, 0.1695374399, 0.1711067706, -0.1465322375, -0.0202878416, -0.1712656766, 0.1405964941, 0.1407006234, 0.0822170824, 0.1546703428, 0.0014108419, 0.1027756184, 0.1161524802, 0.0728876144, 0.0020136535, 0.0673087835, -0.1202062070, 0.1264680177, -0.1551008373, -0.0027654916, -0.0982319340, -0.0883572400, 0.1276988238, -0.0470125079, 0.0009916872, 0.0378271341, 0.1315599233, -0.0015316308, 0.1180758625, 0.0428288430, 0.0421185642, 0.0210643560, -0.0365452319, 0.0592704862, 0.0488487929, 0.0545377880, 0.1671104580, 0.1381177157, -0.1329857111, -0.0363729149, 0.0374786556, 0.1202524155, -0.0933671743, 0.1111084074, -0.0048678517, 0.0907524377, 0.0939323753, -0.1018507034, 0.1455094367, 0.0987488478, 0.0501516461, 0.0835625678, -0.1420804113, 0.0276273489, 0.0915421396, -0.1530100703, 0.0408596545, -0.0628933832, -0.1461173743, -0.0315007865, -0.1358606815, 0.0724197626, -0.1033330709, 0.1737037748, 0.0849825591, 0.1187248081, 0.1023141593, 0.1148922294, -0.0614707991, 0.0866742879, -0.0108835846, -0.1038409844, 0.1693278104, -0.0375148207, -0.1555763483, -0.0804651380, -0.0885930732, 0.0497482270, -0.1700192392, -0.1663738340, -0.0325623602, -0.1580126435, 0.1018870026, 0.0116334558, -0.0767073929, -0.0619392395, 0.0805891007, 0.0014871061, -0.1501489431, 0.1391253322, 0.0264594108, 0.1674692780, 0.1026752740, 0.0343896151, -0.1586887836, -0.0545048714, -0.0607997552, -0.1027096361, -0.1281111389, 0.1011112481, 0.0819106251, -0.1613412499, 0.0004454702, 0.0360695869, -0.1511120647, -0.1516195089, -0.1607716382, -0.0632009879, -0.0407395065, 0.1026164144, -0.0110634416, -0.0901279971, -0.0549164340, -0.0585742146, -0.0859475359, -0.0249577165, -0.0199228376, -0.1551615596, -0.0488763452, -0.0176584572, 0.1601645797, 0.0571006089, 0.0965110213, -0.1731517613, 0.1011740416, -0.1683997810, -0.1198893636, 0.0775469393, -0.1615976393, -0.1558757275, 0.0644036531, -0.1025240421, 0.1106934994, -0.1464580148, -0.1276834756, -0.0814051181, -0.0280926675, 0.0738179237, 0.0705532730, 0.0362519324, 0.1352880448, -0.1270687878, -0.1516005248, 0.0416213572, 0.0270431489, 0.1165808290, -0.1425966471, -0.1519449502, -0.1616200507, -0.0161212534, -0.0252224058, 0.1394220144, -0.0431237966, 0.0427823961, -0.0115416199, -0.0363094658, -0.1160604060, 0.0324801058, -0.0142598152, -0.1481844336, -0.1080307364, -0.0509785563, 0.0832022280, 0.0887038261, -0.0751391649, -0.0847263560, 0.0313893706, 0.1636887640, -0.1408948451, 0.0471604317, -0.0952405632, 0.1699787229, -0.0540364087, 0.1127102822, -0.1223417819, 0.0415822119, 0.1610785574, -0.0573259741, 0.1285368949, 0.1086859554, -0.0285693854, -0.1462022513, 0.0156731904, -0.0012678355, 0.0487599224, 0.1358145624, -0.1332030594, -0.0845742449, -0.0746595562, -0.1257661581, -0.0925739482, -0.0002329499, -0.0257904381, -0.0623915419, -0.1342448592, 0.1341771930, 0.0072606355, -0.0548043922, 0.0073475093, 0.0626049042, -0.1443217099, -0.1626199931, 0.1206938773, -0.1318390071, 0.1396382302, 0.0454833806, 0.1642720252, 0.1263603121, 0.0284523517, -0.1509904116, -0.1243996620, 0.0549876243, -0.1070381403, 0.1423288435, 0.0266384035, 0.1416328698, 0.0474878699, -0.0004142374, 0.0808325559, 0.1226480454, -0.0318153650, -0.1035831049, 0.0985138565, 0.1680720896, -0.0646652579, 0.1345985681, -0.0268660486, 0.0979581624, 0.1261396855, 0.1046719998, -0.1678904146, 0.1453714520, 0.0581461042, 0.1152809113, -0.0253312439, 0.0872278959, 0.0128547847, 0.1373250633, -0.0385991782, 0.0289381742, 0.0730838925, -0.1208162978, 0.1561616510, -0.0223532766, 0.0064218491, 0.0532650352, -0.1724200100, -0.1734125167, -0.0443384349, -0.0422273874, 0.0588953942, -0.0848585665, 0.0820285231, 0.0165340155, -0.0109460056, 0.1702014357, 0.1481353492, -0.1714849621, -0.0295504183, 0.0356652886, -0.0463442057, 0.1076426357, -0.1192231923, 0.0434379131, 0.0449794978, -0.0665615052, -0.0465266705, -0.1677120030, 0.1463540345, 0.0440364778, 0.0372086763, -0.0560918897, 0.1048824638, -0.1627379358, -0.0344386697, -0.1481847316, 0.0580365956, 0.0402108729, 0.1403582245, -0.1069043428, 0.0433894992, 0.1495554894, 0.1166483909, 0.1576414555, 0.0650749505, -0.0631722882, -0.1578252763, -0.1687352210, 0.0491278470, -0.1615548581, -0.1152677536, -0.0233116597, 0.0375026613, 0.0726156682, 0.0310154408, 0.1642223746, 0.0385015011, -0.1642645150, -0.0448989272, -0.1256242096, -0.0582723171, 0.0380445421, -0.0023117363, 0.0315654129, -0.0002872050, 0.1364272386, 0.0111350864, 0.0819285065, 0.0068006963, 0.0022526681, -0.1326025575, 0.0119689852, -0.1168010533, -0.0853137523, 0.0012521595, 0.1711478978, 0.0840934962, -0.1331136972, -0.0507557392, -0.1137347892, 0.0257266909, -0.1754386425, -0.1647727042, 0.0370513797, 0.0732512325, 0.0448153168, 0.1506093889, 0.1098549813, 0.0101235658, 0.0427783579, -0.1221808866, 0.0584773570, 0.0499785990, -0.1256986111, -0.1281158626, 0.0365996510, 0.0281100571, 0.0372425169, -0.1085145622, 0.1125521511, -0.1474858373, 0.0708193928, -0.0813019872, -0.0142142326, -0.0968105122, -0.0178012550, -0.0066778064, -0.0321997851, 0.0096560568, -0.1586590409, 0.1129778177, 0.0888196081, 0.0329791009, -0.0806550980, 0.0564806461, 0.1454506665, 0.0701274723, -0.1217772663, -0.1617750674, 0.0956697613, 0.0163668245, -0.0149386823, -0.1013568491, -0.1004055738, 0.1086439937, 0.1598018557, 0.1012933403, -0.1064565703, -0.1587003917, 0.0334319472, -0.1375302225, -0.1691488326, 0.0001071990, -0.0657882765, 0.1283605248, 0.0619133562, -0.1507946998, 0.1133513004, 0.0311819166, 0.1616706103, -0.1260254681, 0.0601137727, 0.0832863301, 0.0354376733, 0.0456095338, 0.0134515613, -0.0847768039, 0.0057480484, -0.0135290474, -0.0315559506, -0.0983441025, -0.0120574683, 0.0022892505, -0.0315810293, 0.1323593408, 0.0409772694, -0.0990940034, -0.1255025566, 0.1197512597, 0.1171896905, 0.0350566506, 0.0846918076, -0.1556534022, 0.0851100534, -0.1474188268, 0.0868005008, -0.1025256217, 0.1339554340, 0.0061771721, -0.0730591565, -0.1393058598, 0.1238542050, 0.0557590574, -0.0714235455, 0.0151461810, 0.1558389515, -0.0196159482, -0.1590605974, -0.1603899151, -0.1226078346, -0.0155898631, -0.0224625617, 0.1745349318, -0.1144796908, 0.1093588024, 0.0561632514};
#endif

#endif
